<?xml version="1.0"?>
<opencv_storage>
<cascade>
  <stageType>BOOST</stageType>
  <featureType>HAAR</featureType>
  <height>32</height>
  <width>32</width>
  <stageParams>
    <boostType>GAB</boostType>
    <minHitRate>9.9500000476837158e-01</minHitRate>
    <maxFalseAlarm>5.0000000000000000e-01</maxFalseAlarm>
    <weightTrimRate>9.4999999999999996e-01</weightTrimRate>
    <maxDepth>1</maxDepth>
    <maxWeakCount>100</maxWeakCount></stageParams>
  <featureParams>
    <maxCatCount>0</maxCatCount>
    <featSize>1</featSize>
    <mode>ALL</mode></featureParams>
  <stageNum>11</stageNum>
  <stages>
    <!-- stage 0 -->
    <_>
      <maxWeakCount>2</maxWeakCount>
      <stageThreshold>-8.3774827420711517e-02</stageThreshold>
      <weakClassifiers>
        <_>
          <internalNodes>
            0 -1 1 -2.0059358328580856e-02</internalNodes>
          <leafValues>
            9.2771083116531372e-01 -8.8421052694320679e-01</leafValues></_>
        <_>
          <internalNodes>
            0 -1 27 7.2878217324614525e-03</internalNodes>
          <leafValues>
            -9.3892341852188110e-01 8.0043572187423706e-01</leafValues></_></weakClassifiers></_>
    <!-- stage 1 -->
    <_>
      <maxWeakCount>2</maxWeakCount>
      <stageThreshold>-4.3050470948219299e-01</stageThreshold>
      <weakClassifiers>
        <_>
          <internalNodes>
            0 -1 5 7.9899936914443970e-02</internalNodes>
          <leafValues>
            -9.6449702978134155e-01 6.9230771064758301e-01</leafValues></_>
        <_>
          <internalNodes>
            0 -1 9 -2.1476578712463379e-01</internalNodes>
          <leafValues>
            -9.8751008510589600e-01 5.3399235010147095e-01</leafValues></_></weakClassifiers></_>
    <!-- stage 2 -->
    <_>
      <maxWeakCount>3</maxWeakCount>
      <stageThreshold>-9.5258885622024536e-01</stageThreshold>
      <weakClassifiers>
        <_>
          <internalNodes>
            0 -1 13 2.0231027156114578e-02</internalNodes>
          <leafValues>
            -8.8108110427856445e-01 8.1818181276321411e-01</leafValues></_>
        <_>
          <internalNodes>
            0 -1 14 -1.3509367406368256e-01</internalNodes>
          <leafValues>
            -8.2577615976333618e-01 6.9558870792388916e-01</leafValues></_>
        <_>
          <internalNodes>
            0 -1 2 -3.0522342771291733e-02</internalNodes>
          <leafValues>
            8.5709917545318604e-01 -7.6709645986557007e-01</leafValues></_></weakClassifiers></_>
    <!-- stage 3 -->
    <_>
      <maxWeakCount>2</maxWeakCount>
      <stageThreshold>-1.7698244750499725e-01</stageThreshold>
      <weakClassifiers>
        <_>
          <internalNodes>
            0 -1 4 -3.7623021006584167e-01</internalNodes>
          <leafValues>
            7.2549021244049072e-01 -9.6491229534149170e-01</leafValues></_>
        <_>
          <internalNodes>
            0 -1 0 -3.2354034483432770e-02</internalNodes>
          <leafValues>
            7.8792983293533325e-01 -8.1976562738418579e-01</leafValues></_></weakClassifiers></_>
    <!-- stage 4 -->
    <_>
      <maxWeakCount>3</maxWeakCount>
      <stageThreshold>-9.0075427293777466e-01</stageThreshold>
      <weakClassifiers>
        <_>
          <internalNodes>
            0 -1 28 3.4514069557189941e-02</internalNodes>
          <leafValues>
            -7.6288658380508423e-01 7.2151899337768555e-01</leafValues></_>
        <_>
          <internalNodes>
            0 -1 22 5.1589563488960266e-02</internalNodes>
          <leafValues>
            -6.6392987966537476e-01 7.3340618610382080e-01</leafValues></_>
        <_>
          <internalNodes>
            0 -1 24 -4.9349972978234291e-03</internalNodes>
          <leafValues>
            5.2606219053268433e-01 -8.4148347377777100e-01</leafValues></_></weakClassifiers></_>
    <!-- stage 5 -->
    <_>
      <maxWeakCount>2</maxWeakCount>
      <stageThreshold>-2.9569640755653381e-01</stageThreshold>
      <weakClassifiers>
        <_>
          <internalNodes>
            0 -1 15 3.2471083104610443e-03</internalNodes>
          <leafValues>
            -7.6041668653488159e-01 6.7901235818862915e-01</leafValues></_>
        <_>
          <internalNodes>
            0 -1 11 6.3364594243466854e-03</internalNodes>
          <leafValues>
            -9.7470873594284058e-01 5.2926409244537354e-01</leafValues></_></weakClassifiers></_>
    <!-- stage 6 -->
    <_>
      <maxWeakCount>2</maxWeakCount>
      <stageThreshold>-3.4862443804740906e-01</stageThreshold>
      <weakClassifiers>
        <_>
          <internalNodes>
            0 -1 19 9.9923163652420044e-03</internalNodes>
          <leafValues>
            -8.5310733318328857e-01 6.2500000000000000e-01</leafValues></_>
        <_>
          <internalNodes>
            0 -1 6 -1.4054167270660400e-01</internalNodes>
          <leafValues>
            -9.7362446784973145e-01 5.0519835948944092e-01</leafValues></_></weakClassifiers></_>
    <!-- stage 7 -->
    <_>
      <maxWeakCount>3</maxWeakCount>
      <stageThreshold>-8.2213085889816284e-01</stageThreshold>
      <weakClassifiers>
        <_>
          <internalNodes>
            0 -1 23 1.6500871628522873e-02</internalNodes>
          <leafValues>
            -8.2222223281860352e-01 6.1290323734283447e-01</leafValues></_>
        <_>
          <internalNodes>
            0 -1 26 5.1238387823104858e-03</internalNodes>
          <leafValues>
            -6.4262992143630981e-01 7.8544789552688599e-01</leafValues></_>
        <_>
          <internalNodes>
            0 -1 25 1.5243325382471085e-02</internalNodes>
          <leafValues>
            -7.1696913242340088e-01 6.4272129535675049e-01</leafValues></_></weakClassifiers></_>
    <!-- stage 8 -->
    <_>
      <maxWeakCount>3</maxWeakCount>
      <stageThreshold>-9.4336497783660889e-01</stageThreshold>
      <weakClassifiers>
        <_>
          <internalNodes>
            0 -1 7 -2.7117060497403145e-02</internalNodes>
          <leafValues>
            7.6811593770980835e-01 -7.0588237047195435e-01</leafValues></_>
        <_>
          <internalNodes>
            0 -1 12 2.9280073940753937e-03</internalNodes>
          <leafValues>
            -9.0942841768264771e-01 4.6721464395523071e-01</leafValues></_>
        <_>
          <internalNodes>
            0 -1 17 6.0306973755359650e-03</internalNodes>
          <leafValues>
            -6.5578442811965942e-01 6.7194575071334839e-01</leafValues></_></weakClassifiers></_>
    <!-- stage 9 -->
    <_>
      <maxWeakCount>3</maxWeakCount>
      <stageThreshold>-1.0967346429824829e+00</stageThreshold>
      <weakClassifiers>
        <_>
          <internalNodes>
            0 -1 16 2.2216457873582840e-02</internalNodes>
          <leafValues>
            -8.7058824300765991e-01 5.5339807271957397e-01</leafValues></_>
        <_>
          <internalNodes>
            0 -1 10 5.4930481128394604e-03</internalNodes>
          <leafValues>
            -8.2493305206298828e-01 4.9366950988769531e-01</leafValues></_>
        <_>
          <internalNodes>
            0 -1 3 -3.8882265798747540e-03</internalNodes>
          <leafValues>
            6.9792562723159790e-01 -7.1981590986251831e-01</leafValues></_></weakClassifiers></_>
    <!-- stage 10 -->
    <_>
      <maxWeakCount>4</maxWeakCount>
      <stageThreshold>-6.0404884815216064e-01</stageThreshold>
      <weakClassifiers>
        <_>
          <internalNodes>
            0 -1 18 -1.4100356958806515e-02</internalNodes>
          <leafValues>
            6.0000002384185791e-01 -7.5531917810440063e-01</leafValues></_>
        <_>
          <internalNodes>
            0 -1 20 -2.4080402217805386e-03</internalNodes>
          <leafValues>
            4.4303297996520996e-01 -8.4523361921310425e-01</leafValues></_>
        <_>
          <internalNodes>
            0 -1 21 4.2222794145345688e-02</internalNodes>
          <leafValues>
            -9.2359906435012817e-01 3.7598621845245361e-01</leafValues></_>
        <_>
          <internalNodes>
            0 -1 8 -1.0111644864082336e-02</internalNodes>
          <leafValues>
            -6.3474017381668091e-01 6.3183641433715820e-01</leafValues></_></weakClassifiers></_></stages>
  <features>
    <_>
      <rects>
        <_>
          0 0 4 21 -1.</_>
        <_>
          2 0 2 21 2.</_></rects>
      <tilted>0</tilted></_>
    <_>
      <rects>
        <_>
          0 0 12 6 -1.</_>
        <_>
          3 0 6 6 2.</_></rects>
      <tilted>0</tilted></_>
    <_>
      <rects>
        <_>
          0 20 8 11 -1.</_>
        <_>
          4 20 4 11 2.</_></rects>
      <tilted>0</tilted></_>
    <_>
      <rects>
        <_>
          0 26 10 1 -1.</_>
        <_>
          5 26 5 1 2.</_></rects>
      <tilted>0</tilted></_>
    <_>
      <rects>
        <_>
          1 18 31 12 -1.</_>
        <_>
          1 22 31 4 2.</_></rects>
      <tilted>0</tilted></_>
    <_>
      <rects>
        <_>
          3 7 27 12 -1.</_>
        <_>
          3 13 27 6 2.</_></rects>
      <tilted>0</tilted></_>
    <_>
      <rects>
        <_>
          3 22 14 9 -1.</_>
        <_>
          3 25 14 3 2.</_></rects>
      <tilted>0</tilted></_>
    <_>
      <rects>
        <_>
          4 0 6 4 -1.</_>
        <_>
          6 2 2 4 3.</_></rects>
      <tilted>1</tilted></_>
    <_>
      <rects>
        <_>
          4 3 21 1 -1.</_>
        <_>
          11 3 7 1 2.</_></rects>
      <tilted>0</tilted></_>
    <_>
      <rects>
        <_>
          4 7 10 24 -1.</_>
        <_>
          4 15 10 8 2.</_></rects>
      <tilted>0</tilted></_>
    <_>
      <rects>
        <_>
          6 3 9 4 -1.</_>
        <_>
          9 6 3 4 3.</_></rects>
      <tilted>1</tilted></_>
    <_>
      <rects>
        <_>
          6 11 16 8 -1.</_>
        <_>
          6 13 16 4 2.</_></rects>
      <tilted>0</tilted></_>
    <_>
      <rects>
        <_>
          8 11 3 12 -1.</_>
        <_>
          8 17 3 6 2.</_></rects>
      <tilted>0</tilted></_>
    <_>
      <rects>
        <_>
          9 1 12 6 -1.</_>
        <_>
          9 4 12 3 2.</_></rects>
      <tilted>0</tilted></_>
    <_>
      <rects>
        <_>
          10 0 14 12 -1.</_>
        <_>
          10 4 14 4 2.</_></rects>
      <tilted>0</tilted></_>
    <_>
      <rects>
        <_>
          10 1 13 2 -1.</_>
        <_>
          10 2 13 1 2.</_></rects>
      <tilted>0</tilted></_>
    <_>
      <rects>
        <_>
          13 19 12 6 -1.</_>
        <_>
          19 19 6 6 2.</_></rects>
      <tilted>0</tilted></_>
    <_>
      <rects>
        <_>
          17 4 6 8 -1.</_>
        <_>
          17 6 6 4 2.</_></rects>
      <tilted>0</tilted></_>
    <_>
      <rects>
        <_>
          20 0 12 6 -1.</_>
        <_>
          20 0 6 3 2.</_>
        <_>
          26 3 6 3 2.</_></rects>
      <tilted>0</tilted></_>
    <_>
      <rects>
        <_>
          20 9 6 8 -1.</_>
        <_>
          23 9 3 8 2.</_></rects>
      <tilted>0</tilted></_>
    <_>
      <rects>
        <_>
          20 22 4 2 -1.</_>
        <_>
          20 22 2 2 2.</_></rects>
      <tilted>1</tilted></_>
    <_>
      <rects>
        <_>
          22 5 6 27 -1.</_>
        <_>
          24 14 2 9 9.</_></rects>
      <tilted>0</tilted></_>
    <_>
      <rects>
        <_>
          23 0 3 22 -1.</_>
        <_>
          23 11 3 11 2.</_></rects>
      <tilted>0</tilted></_>
    <_>
      <rects>
        <_>
          23 1 3 12 -1.</_>
        <_>
          23 7 3 6 2.</_></rects>
      <tilted>0</tilted></_>
    <_>
      <rects>
        <_>
          23 17 4 9 -1.</_>
        <_>
          23 17 2 9 2.</_></rects>
      <tilted>1</tilted></_>
    <_>
      <rects>
        <_>
          24 20 8 12 -1.</_>
        <_>
          28 20 4 12 2.</_></rects>
      <tilted>0</tilted></_>
    <_>
      <rects>
        <_>
          26 2 6 1 -1.</_>
        <_>
          29 2 3 1 2.</_></rects>
      <tilted>0</tilted></_>
    <_>
      <rects>
        <_>
          28 0 4 9 -1.</_>
        <_>
          30 0 2 9 2.</_></rects>
      <tilted>0</tilted></_>
    <_>
      <rects>
        <_>
          28 0 4 23 -1.</_>
        <_>
          30 0 2 23 2.</_></rects>
      <tilted>0</tilted></_></features></cascade>
</opencv_storage>
